49
8
-1
-14
12
19
36
52
91
65
45
25
-4
-111
-17
-19
6
-39
-23
-30
-47
26
100
85
45
-7
-7
-50
-20
-19
-31
13
27
-8
-25
17
9
-43
32
0
-9
-30
-15
22
75
87
69
37
50
-1
-28
-109
-55
6
-3
-13
-52
-22
-54
1
118
111
50
22
-9
-55
-49
-25
-21
18
12
9
-23
26
29
-4
-44
-21
5
8
8
-24
-34
-86
-105
4
4
-14
44
100
55
7
0
49
44
45
37
-9
-40
-47
-16
10
5
29
37
25
10
10
-7
-8
34
4
-11
25
65
3
-35
-24
-42
34
78
80
115
71
28
11
-29
-74
-67
-21
-15
-32
-45
-44
-21
30
104
140
54
2
-17
-39
-54
-21
-28
25
0
10
-2
20
0
-9
50
37
8
-74
-71
-74
30
69
54
50
42
27
2
-112
-46
-7
-15
-20
17
18
-46
-1
97
101
-44
-12
-9
30
28
-3
-34
-12
-32
-29
-26
-19
-4
-13
53
37
-13
-62
-92
-73
30
49
64
52
20
31
5
-98
-41
-1
-19
-3
20
20
-14
-11
105
82
-27
-53
-3
1
16
2
-28
-27
-43
-47
-76
-8
-7
22
-48
-24
54
42
58
20
12
-48
-64
-5
-14
-28
-26
98
42
22
-5
7
-48
-29
78
17
-47
-42
55
27
-15
0
8
26
16
16
38
52
33
17
-3
18
107
48
-46
-139
-137
-100
24
35
48
34
48
18
-1
-62
-85
-3
17
12
44
22
-18
-5
62
83
-24
-42
-1
21
30
-3
-19
-45
-19
-37
-41
-22
15
-11
-40
-13
-30
-36
-10
12
-10
-6
-24
-71
-56
-44
-25
-39
-31
6
7
-18
-6
-40
-103
-94
-37
-17
-97
-56
-18
9
-4
8
-25
-10
9
4
-4
7
72
59
-16
-24
-14
-16
-11
-15
2
-8
-36
-61
-16
-33
-23
-71
-14
24
11
-18
18
-51
-108
-74
-39
-42
-72
-27
6
-20
-8
-2
12
6
-6
12
18
27
73
58
-12
-18
-13
5
-7
-21
-32
-22
17
8
32
8
-8
49
-8
-27
-11
-29
-2
32
107
34
3
7
38
-4
-21
-3
-8
-32
-42
-31
-61
-37
-61
-41
-69
-57
-24
2
20
24
17
6
22
20
-30
-27
-39
-11
-20
-35
30
15
16
8
12
-49
-107
-56
-21
-6
-40
-15
10
16
25
13
24
25
20
50
46
25
54
53
-6
23
-7
-34
-59
24
69
7
-31
26
48
29
36
57
22
-33
-42
6
-10
18
7
0
-68
-100
-82
-55
-54
-7
-22
-35
-25
23
7
-40
-34
3
-36
-40
29
14
12
-29
-44
14
69
38
5
24
39
25
63
99
4
-24
-36
-17
15
8
16
-30
-69
-83
-70
-64
-25
-4
4
-7
-16
30
23
-4
-34
-26
9
-26
-53
-32
-37
-30
-24
-64
-122
-86
-6
-73
-82
-87
-95
-138
-66
-3
-3
-48
-54
-45
-58
1
2
26
30
4
-21
-17
-13
-20
-42
-77
-80
-29
-42
-53
-19
-15
46
28
-6
-15
-25
42
97
21
-1
12
54
76
63
80
42
1
-15
2
11
17
60
20
-30
-75
-79
-46
-35
20
-12
-5
31
19
29
2
29
25
13
-1
9
-18
-2
-13
-16
-37
-27
-2
4
-19
-56
-29
16
95
26
11
-52
-80
-64
-39
14
-70
-104
-32
41
-16
14
35
36
19
-2
16
-20
-5
29
-4
9
24
-9
-8
12
3
-10
-34
-40
19
20
-35
-48
-3
62
118
33
14
-27
-103
-105
-51
8
-94
-126
-40
22
6
-12
27
25
21
-1
2
-18
14
21
33
22
59
-17
2
-22
15
7
14
41
-54
-46
1
21
-2
-4
-112
-32
4
33
84
60
-14
-21
10
41
18
-58
10
7
-68
-53
-24
-46
-38
-8
-29
-29
-2
10
-22
18
22
6
-20
-43
-65
-37
-31
-2
-22
-26
-11
53
168
69
49
-47
-93
-85
-32
22
-69
-81
-26
26
12
2
32
26
4
32
-18
-30
7
14
5
-6
34
18
5
11
-14
-43
-53
-47
-15
-39
-27
-58
-54
-57
-19
30
3
5
-31
-11
4
13
24
0
-40
-32
-26
-50
-46
-12
4
14
-34
-14
-28
-21
-15
-5
-25
-11
-1
-7
2
-23
-48
-5
4
-13
-12
-36
-31
-43
-14
34
22
-6
14
3
-8
40
22
5
-39
-29
-28
-54
-14
-19
-8
-9
-2
-10
-26
-25
-14
23
23
-72
-60
-55
-40
-20
-28
-26
-54
-38
-2
-19
-19
13
-43
-67
-31
-53
-17
-5
-20
-70
-60
-54
-8
-47
-35
1
-46
-27
-43
-62
-32
-42
-31
-52
-17
-56
-55
6
22
8
49
25
21
3
-10
0
0
-33
-48
-55
-5
14
43
28
33
6
21
68
67
30
9
-19
-15
-31
0
-1
38
13
3
38
24
21
2
13
14
-8
-8
-17
-12
-17
-46
-81
-12
36
-18
-54
-47
-54
-33
7
2
-15
-22
8
0
67
94
36
18
28
-31
-68
-87
-51
-74
-35
-28
-57
-56
-31
16
-26
-37
5
10
9
11
11
-35
-51
-21
32
0
-55
-40
-64
-10
14
-13
8
-8
-2
13
74
89
35
51
40
-28
-54
-59
-41
-54
-41
-35
-46
-25
-28
35
-14
-26
-30
-29
4
-25
-40
-11
23
-52
-58
-21
7
9
4
9
-28
-8
-27
-16
-21
-20
-150
-125
-85
-72
-44
-28
35
14
-18
-5
-11
-4
-22
10
-22
-63
-33
0
-11
13
-5
7
2
-1
-37
50
66
8
-40
-43
-37
-63
-26
1
-11
-19
-17
13
99
159
110
94
48
-25
-55
-52
-53
-33
-27
-1
-8
-11
0
12
10
19
-11
-27
-37
-66
-81
-19
-9
-26
-36
-21
-15
-9
-79
-72
-13
-6
4
-4
-15
-27
-18
11
-5
11
-13
-45
-4
-8
-14
-40
-30
-47
-11
-31
-50
-73
-17
-22
14
-15
-15
-37
-62
-43
12
5
-32
-8
12
-25
-74
-62
16
8
25
-4
11
5
-2
-4
1
2
-41
-23
-15
20
3
-23
-27
4
8
0
-28
-16
-18
13
-74
-48
-24
-18
-2
-65
-95
-97
-21
-28
-61
-34
-16
-18
-73
-49
-53
-60
-41
-37
-47
-52
-77
-109
-45
-28
-54
-80
-80
-69
-62
-58
-77
-86
-49
-40
-57
-69
25
8
-24
-49
-49
-3
50
43
7
24
8
-5
-44
-86
3
31
21
35
22
4
-12
32
41
17
-21
2
9
31
13
-3
-30
2
15
48
11
19
43
27
-4
-7
-30
6
44
77
71
-3
-92
-69
-46
-43
-10
-27
-8
6
-5
20
18
53
63
78
62
83
53
17
43
15
11
13
-8
-18
-31
-20
-36
-53
-25
-17
-4
-25
-14
9
51
93
64
-35
-85
-36
-54
-9
-10
-8
-26
-30
-5
19
33
69
94
77
53
89
39
30
7
20
44
-10
-17
-12
0
-12
-42
-47
-23
-52
38
38
33
-8
-50
-77
-74
41
82
25
15
-11
-5
-5
-11
-12
-30
-27
-17
-80
-104
-56
-63
-85
-41
-41
-49
-42
-37
-28
-1
6
8
2
-7
20
11
33
-11
-29
-5
2
63
103
76
-22
-54
-53
-49
-38
-12
-29
-39
-6
4
-2
50
71
117
75
43
90
44
44
12
17
17
-24
-43
-18
-31
15
-8
-6
5
-13
21
16
-9
5
-5
51
58
25
52
65
70
62
41
45
14
6
35
19
44
34
38
101
70
11
-23
-8
-2
22
0
-36
-15
-23
-11
-10
-7
1
14
32
10
19
-1
-3
4
31
44
7
19
62
60
33
24
46
4
4
12
36
38
55
23
85
55
-24
-17
10
7
-21
-5
-25
-67
-61
-53
-26
-6
-40
-5
16
89
65
80
54
44
62
34
70
85
16
-1
23
37
37
-1
29
32
-5
3
8
46
-2
32
98
103
74
75
63
94
73
85
102
93
58
76
81
68
26
-14
-24
-22
-81
-98
-73
-22
-44
-25
32
4
-40
-57
-40
-47
-61
-38
27
54
45
24
51
33
-56
-94
-71
-33
-26
-58
-43
-75
-112
-121
-89
-106
-72
-27
-14
42
64
54
-13
-50
-36
31
46
69
58
9
14
13
-2
-5
-9
-26
-1
-19
25
22
10
-7
-31
10
12
-20
-17
46
44
39
22
4
6
-5
29
55
72
72
38
33
-6
-23
-36
35
14
51
62
-9
1
-28
-42
-17
-24
-1
-12
-18
4
6
9
4
-28
-18
-18
-1
-14
21
47
15
-12
-8
32
18
2
32
24
-14
-15
18
53
81
100
74
43
24
-13
31
69
42
88
62
25
53
64
71
29
47
45
27
48
65
49
55
56
15
4
45
34
59
36
65
33
21
1
69
93
27
-52
-107
-60
40
95
103
27
0
-56
-91
-70
-47
-33
-32
-43
-33
-1
-9
-27
-35
-61
-50
-22
-32
-32
4
1
6
-31
-25
-12
-46
-26
-25
12
24
8
28
-7
-55
-75
-38
20
14
46
45
3
18
79
75
9
-58
-89
-50
10
-1
1
-28
5
6
-22
6
22
36
23
-15
-7
10
14
27
-24
17
26
15
0
6
8
-46
-77
-7
34
20
50
51
20
14
78
70
-1
-65
-96
-52
-24
-9
-19
-18
-27
3
-10
26
24
19
29
-4
-11
10
17
32
-34
-9
32
-47
-3
-35
21
35
40
-21
-21
-17
-42
-16
-5
1
-51
-97
-30
16
30
5
-41
-6
7
-11
-25
-27
-13
-30
-41
-51
-21
-13
-21
-20
-31
-27
-5
-6
-12
27
41
25
-26
-112
-136
-80
-35
26
41
34
30
55
96
113
24
-56
-103
-64
-20
2
1
-29
-25
-27
-47
-10
13
14
21
11
-31
20
11
10
-13
18
18
17
12
7
-19
-66
-35
28
32
54
-15
-39
-43
12
44
-35
-37
-33
-79
-60
14
56
9
30
101
62
-11
-22
-27
-20
-24
-3
10
-30
-17
12
26
2
-7
32
22
3
-27
-32
-16
28
50
73
-2
-26
-18
-25
50
-4
-16
-46
-74
-66
-9
29
12
38
74
80
-7
-22
-35
-34
8
16
6
-32
-24
12
38
-17
-17
-53
-19
-13
25
57
16
-45
-65
-97
-17
11
22
-22
-18
-3
28
41
57
75
-19
-45
-7
-13
-65
-93
-1
15
28
0
12
-23
-3
13
14
-38
-34
-4
-8
88
22
-6
-63
-108
-55
30
130
128
41
9
-2
-10
46
24
-14
-54
-80
-85
-19
22
-12
56
110
126
13
0
-36
-33
-3
22
-22
-15
-12
18
9
-4
20
0
-12
-3
49
53
30
45
14
-29
-36
-20
-19
-19
-20
25
20
-2
8
36
34
10
52
55
19
14
76
60
47
33
33
36
40
63
44
12
-8
9
-24
-3
18
23
14
47
56
50
-6
-47
-52
-14
-5
-39
-58
-8
12
14
1
42
51
16
32
83
28
4
41
64
75
55
39
0
41
52
33
33
7
-21
8
60
47
5
-2
15
-15
3
61
81
66
43
54
48
108
23
23
36
49
2
-10
41
27
-8
21
43
-14
2
13
-1
2
28
-6
-7
8
17
51
20
37
-56
-50
-8
7
16
29
27
-55
-83
-64
-50
-65
-87
-139
-63
-24
-2
-23
21
25
-15
17
36
32
-26
33
40
18
32
-5
-11
-4
26
12
5
-33
-23
-50
20
24
29
3
-17
-17
-30
-36
-28
15
15
-31
-53
-82
-39
-13
-14
32
7
-5
-46
-4
-16
-4
-11
49
26
-5
-12
40
39
21
11
-12
-10
13
4
3
1
35
42
20
-25
-15
-40
-37
-29
-5
7
-13
-42
-105
-34
-31
3
38
7
5
-28
-29
-15
-25
-12
30
48
18
-11
30
57
4
2
14
22
21
4
-14
6
-10
0
22
23
23
82
78
23
-8
-1
26
25
103
84
50
37
-11
-9
18
82
23
17
41
30
1
-34
-27
-6
-18
-14
3
6
21
-12
1
-15
3
40
44
46
12
-16
6
-23
-39
-5
1
13
10
-16
-105
-71
-29
26
19
35
-9
-47
0
11
-30
-6
21
22
41
14
48
47
20
26
27
24
24
8
9
-10
23
27
17
-40
-110
-84
-21
36
53
31
56
68
25
38
36
38
-23
-49
23
-25
-49
6
41
5
-8
-6
-1
17
20
-4
-15
1
13
1
-22
-30
2
2
13
37
25
-18
-93
-127
-2
69
65
50
53
68
21
48
55
41
-39
-44
25
-18
-65
-1
29
20
-27
-15
32
27
15
-16
-16
-18
2
-14
-18
-31
-3
28
31
-5
-13
57
89
108
12
-65
-23
6
-34
-36
-4
-6
-30
-15
61
60
15
-13
53
28
-21
-26
27
17
-4
-34
-12
13
34
33
6
17
26
3
-7
17
-12
11
-18
-117
-201
-185
-15
46
22
27
12
3
32
51
37
-10
-29
-28
-15
-36
-56
-8
22
30
-32
-2
20
38
15
-22
-19
-24
-15
-31
-12
-38
-30
